solver_type L1R_LR
nr_class 2
label 0 1
nr_feature 115
bias -1
w
0.0007313218095861637 
0.04180408815155093 
0.2242755681003527 
0.656519763954257 
0 
0 
-2.048572149885449 
-2.170437081861952 
0.1485280102379755 
0 
0.1966705833413363 
0.3963381504337404 
0.06463506980164023 
0 
0 
-0.8481886881235641 
-0.6768350103117495 
-0.4607897594239874 
0.4045703378127551 
0.3110636364323771 
0.6562121776389184 
-0.5333497609761989 
0.8530884054697008 
-0.03454371216875891 
-0.09633366031773462 
0.3632398443039646 
-0.06430865713306581 
0.0344815528683015 
-0.4498327519300069 
0.67771638042876 
0.6167680626710922 
0 
0.5185875340342065 
0.4293984546146976 
0.8884021427746858 
0 
0 
-0.1088328737122852 
0.2335115070433977 
-0.5043615987516179 
-0.6054394984211633 
0.3634232875799019 
0.438508629855802 
0.04906286353685142 
0.1688027844943681 
0.2625894319719614 
0.09810805477785779 
-0.2434435907233375 
-0.2775991909243098 
0.2971453755430438 
-0.6353890176490181 
1.476514481534088 
-0.972239440441644 
0.8134670057741464 
0.3236674768686291 
-0.02381744393982601 
0 
-1.702374828087041 
0.3219536212203086 
0.3346447942679855 
-0.6813540662410156 
0.06061509552118335 
-0.150548162656131 
0.2152263192677799 
0.852213942426818 
1.11958384309731 
0.1369881524555895 
0.18855658954071 
0.2220269882969356 
0.4575924690448688 
0.7038593295151742 
-0.6260946514982419 
-0.7245659163854452 
0.6592833198803117 
-0.1144124332442868 
1.595260102042452 
-0.07638802078958067 
-0.5713894288691881 
-1.237960483558336 
-0.9692338342202093 
0.5315775884000205 
-1.513155522884283 
0.7895911811831314 
-0.1416022496572027 
-0.08836194334613792 
-2.364994358413146 
0.7028175573249799 
0.2088000436609081 
0.3339120677384525 
0.374359014830034 
0.3704420439388227 
-1.345682832389181 
0.3808577984161184 
0 
0.1714371098138486 
-0.1506982630666974 
-1.421958858535924 
1.013030136456179 
-0.2182080774061235 
-0.0669691118530409 
0.7239419812481801 
0 
-0.8837023536508304 
-0.1613708968570345 
0.001694920639612044 
-0.1915750670885173 
0.2603606504739108 
0.1238979273725751 
0.4430907155155858 
0.04291803432671579 
1.139948124423238 
-1.73108871552233 
0.6477811148914592 
-0.5857526517590141 
0.06724277308315492 
